digraph Tree {
node [shape=box, style="rounded", color="black", fontname=helvetica] ;
edge [fontname=helvetica] ;
0 [label="X[11] <= 465.0\nmse = 2.0\nsamples = 393\nvalue = 4.4"] ;
1 [label="X[18] <= 55960.0\nmse = 1.2\nsamples = 148\nvalue = 3.3"] ;
0 -> 1 [labeldistance=2.5, labelangle=45, headlabel="True"] ;
2 [label="X[19] <= 1.1\nmse = 0.6\nsamples = 55\nvalue = 2.6"] ;
1 -> 2 ;
3 [label="X[14] <= -0.5\nmse = 0.3\nsamples = 12\nvalue = 1.5"] ;
2 -> 3 ;
4 [label="mse = 0.0\nsamples = 1\nvalue = 2.8"] ;
3 -> 4 ;
5 [label="X[20] <= 0.3\nmse = 0.1\nsamples = 11\nvalue = 1.3"] ;
3 -> 5 ;
6 [label="X[19] <= 0.2\nmse = 0.0\nsamples = 3\nvalue = 0.9"] ;
5 -> 6 ;
7 [label="X[12] <= 93780.0\nmse = 0.0\nsamples = 2\nvalue = 0.8"] ;
6 -> 7 ;
8 [label="mse = 0.0\nsamples = 1\nvalue = 0.9"] ;
7 -> 8 ;
9 [label="mse = -0.0\nsamples = 1\nvalue = 0.7"] ;
7 -> 9 ;
10 [label="mse = 0.0\nsamples = 1\nvalue = 1.1"] ;
6 -> 10 ;
11 [label="X[8] <= -3531.5\nmse = 0.0\nsamples = 8\nvalue = 1.4"] ;
5 -> 11 ;
12 [label="mse = 0.0\nsamples = 3\nvalue = 1.2"] ;
11 -> 12 ;
13 [label="X[21] <= 0.3\nmse = 0.0\nsamples = 5\nvalue = 1.5"] ;
11 -> 13 ;
14 [label="X[15] <= 9870.0\nmse = 0.0\nsamples = 4\nvalue = 1.6"] ;
13 -> 14 ;
15 [label="X[3] <= 10496.0\nmse = 0.0\nsamples = 2\nvalue = 1.6"] ;
14 -> 15 ;
16 [label="mse = 0.0\nsamples = 1\nvalue = 1.7"] ;
15 -> 16 ;
17 [label="mse = 0.0\nsamples = 1\nvalue = 1.6"] ;
15 -> 17 ;
18 [label="mse = -0.0\nsamples = 2\nvalue = 1.5"] ;
14 -> 18 ;
19 [label="mse = -0.0\nsamples = 1\nvalue = 1.3"] ;
13 -> 19 ;
20 [label="X[18] <= 21570.0\nmse = 0.4\nsamples = 43\nvalue = 2.8"] ;
2 -> 20 ;
21 [label="X[9] <= -376.5\nmse = 0.1\nsamples = 11\nvalue = 2.1"] ;
20 -> 21 ;
22 [label="X[20] <= 2.5\nmse = 0.0\nsamples = 10\nvalue = 2.2"] ;
21 -> 22 ;
23 [label="X[15] <= 5280.0\nmse = 0.0\nsamples = 7\nvalue = 2.3"] ;
22 -> 23 ;
24 [label="mse = 0.0\nsamples = 2\nvalue = 2.4"] ;
23 -> 24 ;
25 [label="X[8] <= -770.5\nmse = 0.0\nsamples = 5\nvalue = 2.3"] ;
23 -> 25 ;
26 [label="mse = 0.0\nsamples = 4\nvalue = 2.3"] ;
25 -> 26 ;
27 [label="mse = -0.0\nsamples = 1\nvalue = 2.2"] ;
25 -> 27 ;
28 [label="mse = -0.0\nsamples = 3\nvalue = 2.0"] ;
22 -> 28 ;
29 [label="mse = -0.0\nsamples = 1\nvalue = 1.3"] ;
21 -> 29 ;
30 [label="X[11] <= -26.0\nmse = 0.3\nsamples = 32\nvalue = 3.0"] ;
20 -> 30 ;
31 [label="X[5] <= 84.5\nmse = 0.2\nsamples = 25\nvalue = 2.9"] ;
30 -> 31 ;
32 [label="X[13] <= -1725.5\nmse = 0.1\nsamples = 19\nvalue = 2.8"] ;
31 -> 32 ;
33 [label="X[1] <= 2371.0\nmse = 0.1\nsamples = 17\nvalue = 2.9"] ;
32 -> 33 ;
34 [label="X[5] <= -2176.5\nmse = 0.1\nsamples = 5\nvalue = 2.6"] ;
33 -> 34 ;
35 [label="X[9] <= -4287.5\nmse = 0.0\nsamples = 2\nvalue = 3.0"] ;
34 -> 35 ;
36 [label="mse = 0.0\nsamples = 1\nvalue = 3.1"] ;
35 -> 36 ;
37 [label="mse = 0.0\nsamples = 1\nvalue = 3.0"] ;
35 -> 37 ;
38 [label="X[3] <= 6242.0\nmse = 0.0\nsamples = 3\nvalue = 2.5"] ;
34 -> 38 ;
39 [label="X[12] <= 6343.5\nmse = 0.0\nsamples = 2\nvalue = 2.6"] ;
38 -> 39 ;
40 [label="mse = 0.0\nsamples = 1\nvalue = 2.6"] ;
39 -> 40 ;
41 [label="mse = 0.0\nsamples = 1\nvalue = 2.5"] ;
39 -> 41 ;
42 [label="mse = -0.0\nsamples = 1\nvalue = 2.2"] ;
38 -> 42 ;
43 [label="X[20] <= 1.4\nmse = 0.0\nsamples = 12\nvalue = 3.0"] ;
33 -> 43 ;
44 [label="X[4] <= 150.5\nmse = 0.0\nsamples = 7\nvalue = 2.8"] ;
43 -> 44 ;
45 [label="X[7] <= -975.0\nmse = 0.0\nsamples = 3\nvalue = 2.6"] ;
44 -> 45 ;
46 [label="mse = 0.0\nsamples = 2\nvalue = 2.6"] ;
45 -> 46 ;
47 [label="mse = -0.0\nsamples = 1\nvalue = 2.7"] ;
45 -> 47 ;
48 [label="mse = 0.0\nsamples = 4\nvalue = 3.0"] ;
44 -> 48 ;
49 [label="X[13] <= -2930.5\nmse = 0.0\nsamples = 5\nvalue = 3.2"] ;
43 -> 49 ;
50 [label="mse = 0.0\nsamples = 4\nvalue = 3.2"] ;
49 -> 50 ;
51 [label="mse = -0.0\nsamples = 1\nvalue = 3.1"] ;
49 -> 51 ;
52 [label="X[15] <= 8135.0\nmse = 0.0\nsamples = 2\nvalue = 2.1"] ;
32 -> 52 ;
53 [label="mse = 0.0\nsamples = 1\nvalue = 2.0"] ;
52 -> 53 ;
54 [label="mse = 0.0\nsamples = 1\nvalue = 2.1"] ;
52 -> 54 ;
55 [label="X[7] <= -1012.0\nmse = 0.1\nsamples = 6\nvalue = 3.2"] ;
31 -> 55 ;
56 [label="X[6] <= 332.5\nmse = 0.0\nsamples = 4\nvalue = 3.1"] ;
55 -> 56 ;
57 [label="mse = 0.0\nsamples = 3\nvalue = 3.1"] ;
56 -> 57 ;
58 [label="mse = -0.0\nsamples = 1\nvalue = 3.3"] ;
56 -> 58 ;
59 [label="X[21] <= 4.5\nmse = 0.0\nsamples = 2\nvalue = 3.6"] ;
55 -> 59 ;
60 [label="mse = 0.0\nsamples = 1\nvalue = 3.5"] ;
59 -> 60 ;
61 [label="mse = -0.0\nsamples = 1\nvalue = 3.8"] ;
59 -> 61 ;
62 [label="X[11] <= 378.0\nmse = 0.3\nsamples = 7\nvalue = 3.6"] ;
30 -> 62 ;
63 [label="X[19] <= 3.9\nmse = 0.1\nsamples = 6\nvalue = 3.5"] ;
62 -> 63 ;
64 [label="mse = -0.0\nsamples = 4\nvalue = 3.2"] ;
63 -> 64 ;
65 [label="X[10] <= -1091.0\nmse = 0.0\nsamples = 2\nvalue = 3.9"] ;
63 -> 65 ;
66 [label="mse = 0.0\nsamples = 1\nvalue = 3.8"] ;
65 -> 66 ;
67 [label="mse = -0.0\nsamples = 1\nvalue = 4.3"] ;
65 -> 67 ;
68 [label="mse = 0.0\nsamples = 1\nvalue = 4.9"] ;
62 -> 68 ;
69 [label="X[9] <= -300.0\nmse = 1.1\nsamples = 93\nvalue = 3.8"] ;
1 -> 69 ;
70 [label="X[18] <= 182335.0\nmse = 0.8\nsamples = 61\nvalue = 3.4"] ;
69 -> 70 ;
71 [label="X[17] <= 107745.0\nmse = 0.7\nsamples = 31\nvalue = 3.0"] ;
70 -> 71 ;
72 [label="X[1] <= 1553.5\nmse = 0.4\nsamples = 21\nvalue = 3.4"] ;
71 -> 72 ;
73 [label="X[0] <= 1986.5\nmse = 0.0\nsamples = 2\nvalue = 2.5"] ;
72 -> 73 ;
74 [label="mse = 0.0\nsamples = 1\nvalue = 2.6"] ;
73 -> 74 ;
75 [label="mse = 0.0\nsamples = 1\nvalue = 2.2"] ;
73 -> 75 ;
76 [label="X[16] <= 35450.0\nmse = 0.3\nsamples = 19\nvalue = 3.5"] ;
72 -> 76 ;
77 [label="X[18] <= 92530.0\nmse = 0.2\nsamples = 16\nvalue = 3.7"] ;
76 -> 77 ;
78 [label="X[4] <= -2885.5\nmse = 0.1\nsamples = 9\nvalue = 3.5"] ;
77 -> 78 ;
79 [label="mse = 0.0\nsamples = 1\nvalue = 2.6"] ;
78 -> 79 ;
80 [label="X[21] <= 0.3\nmse = 0.0\nsamples = 8\nvalue = 3.6"] ;
78 -> 80 ;
81 [label="X[7] <= -3959.0\nmse = 0.0\nsamples = 3\nvalue = 3.8"] ;
80 -> 81 ;
82 [label="mse = 0.0\nsamples = 1\nvalue = 3.7"] ;
81 -> 82 ;
83 [label="mse = 0.0\nsamples = 2\nvalue = 3.8"] ;
81 -> 83 ;
84 [label="X[11] <= -2612.0\nmse = 0.0\nsamples = 5\nvalue = 3.4"] ;
80 -> 84 ;
85 [label="mse = 0.0\nsamples = 2\nvalue = 3.5"] ;
84 -> 85 ;
86 [label="X[17] <= 32710.0\nmse = 0.0\nsamples = 3\nvalue = 3.2"] ;
84 -> 86 ;
87 [label="mse = 0.0\nsamples = 2\nvalue = 3.2"] ;
86 -> 87 ;
88 [label="mse = 0.0\nsamples = 1\nvalue = 3.3"] ;
86 -> 88 ;
89 [label="X[20] <= 0.4\nmse = 0.2\nsamples = 7\nvalue = 4.1"] ;
77 -> 89 ;
90 [label="mse = 0.0\nsamples = 1\nvalue = 4.8"] ;
89 -> 90 ;
91 [label="X[14] <= 0.7\nmse = 0.1\nsamples = 6\nvalue = 4.0"] ;
89 -> 91 ;
92 [label="X[19] <= 2.0\nmse = 0.0\nsamples = 5\nvalue = 3.8"] ;
91 -> 92 ;
93 [label="X[21] <= 0.1\nmse = 0.0\nsamples = 2\nvalue = 3.6"] ;
92 -> 93 ;
94 [label="mse = 0.0\nsamples = 1\nvalue = 3.6"] ;
93 -> 94 ;
95 [label="mse = -0.0\nsamples = 1\nvalue = 3.7"] ;
93 -> 95 ;
96 [label="X[19] <= 3.6\nmse = 0.0\nsamples = 3\nvalue = 4.0"] ;
92 -> 96 ;
97 [label="mse = 0.0\nsamples = 1\nvalue = 3.9"] ;
96 -> 97 ;
98 [label="mse = 0.0\nsamples = 2\nvalue = 4.0"] ;
96 -> 98 ;
99 [label="mse = 0.0\nsamples = 1\nvalue = 4.5"] ;
91 -> 99 ;
100 [label="X[1] <= 36920.0\nmse = 0.0\nsamples = 3\nvalue = 2.8"] ;
76 -> 100 ;
101 [label="mse = 0.0\nsamples = 1\nvalue = 2.9"] ;
100 -> 101 ;
102 [label="mse = 0.0\nsamples = 2\nvalue = 2.8"] ;
100 -> 102 ;
103 [label="X[19] <= 1.1\nmse = 0.3\nsamples = 10\nvalue = 2.2"] ;
71 -> 103 ;
104 [label="X[8] <= -5480.0\nmse = 0.2\nsamples = 5\nvalue = 1.8"] ;
103 -> 104 ;
105 [label="mse = 0.0\nsamples = 1\nvalue = 1.1"] ;
104 -> 105 ;
106 [label="X[18] <= 161050.0\nmse = 0.0\nsamples = 4\nvalue = 2.0"] ;
104 -> 106 ;
107 [label="X[5] <= -12502.0\nmse = 0.0\nsamples = 3\nvalue = 2.0"] ;
106 -> 107 ;
108 [label="mse = 0.0\nsamples = 2\nvalue = 2.0"] ;
107 -> 108 ;
109 [label="mse = -0.0\nsamples = 1\nvalue = 1.9"] ;
107 -> 109 ;
110 [label="mse = 0.0\nsamples = 1\nvalue = 2.1"] ;
106 -> 110 ;
111 [label="X[9] <= -41707.0\nmse = 0.1\nsamples = 5\nvalue = 2.7"] ;
103 -> 111 ;
112 [label="mse = 0.0\nsamples = 1\nvalue = 3.2"] ;
111 -> 112 ;
113 [label="X[5] <= -19912.0\nmse = 0.0\nsamples = 4\nvalue = 2.6"] ;
111 -> 113 ;
114 [label="mse = 0.0\nsamples = 1\nvalue = 2.4"] ;
113 -> 114 ;
115 [label="mse = 0.0\nsamples = 3\nvalue = 2.7"] ;
113 -> 115 ;
116 [label="X[11] <= -9994.0\nmse = 0.6\nsamples = 30\nvalue = 3.7"] ;
70 -> 116 ;
117 [label="X[21] <= 0.2\nmse = 0.5\nsamples = 17\nvalue = 3.4"] ;
116 -> 117 ;
118 [label="X[4] <= 4418.5\nmse = 0.1\nsamples = 8\nvalue = 3.0"] ;
117 -> 118 ;
119 [label="X[9] <= -2648.5\nmse = 0.0\nsamples = 4\nvalue = 3.2"] ;
118 -> 119 ;
120 [label="X[8] <= -130023.0\nmse = 0.0\nsamples = 3\nvalue = 3.4"] ;
119 -> 120 ;
121 [label="mse = 0.0\nsamples = 1\nvalue = 3.3"] ;
120 -> 121 ;
122 [label="mse = 0.0\nsamples = 2\nvalue = 3.4"] ;
120 -> 122 ;
123 [label="mse = 0.0\nsamples = 1\nvalue = 3.0"] ;
119 -> 123 ;
124 [label="X[7] <= -5997.5\nmse = 0.0\nsamples = 4\nvalue = 2.7"] ;
118 -> 124 ;
125 [label="mse = 0.0\nsamples = 1\nvalue = 2.1"] ;
124 -> 125 ;
126 [label="mse = 0.0\nsamples = 3\nvalue = 2.8"] ;
124 -> 126 ;
127 [label="X[1] <= 292055.0\nmse = 0.5\nsamples = 9\nvalue = 3.8"] ;
117 -> 127 ;
128 [label="X[3] <= 133490.5\nmse = 0.3\nsamples = 7\nvalue = 3.6"] ;
127 -> 128 ;
129 [label="X[6] <= -4947.0\nmse = 0.1\nsamples = 4\nvalue = 3.9"] ;
128 -> 129 ;
130 [label="mse = 0.0\nsamples = 1\nvalue = 4.6"] ;
129 -> 130 ;
131 [label="X[4] <= 16346.0\nmse = 0.0\nsamples = 3\nvalue = 3.7"] ;
129 -> 131 ;
132 [label="mse = 0.0\nsamples = 1\nvalue = 4.0"] ;
131 -> 132 ;
133 [label="mse = 0.0\nsamples = 2\nvalue = 3.7"] ;
131 -> 133 ;
134 [label="X[4] <= -582247.5\nmse = 0.0\nsamples = 3\nvalue = 2.9"] ;
128 -> 134 ;
135 [label="mse = 0.0\nsamples = 1\nvalue = 2.6"] ;
134 -> 135 ;
136 [label="mse = 0.0\nsamples = 2\nvalue = 3.0"] ;
134 -> 136 ;
137 [label="X[4] <= -997.0\nmse = 0.3\nsamples = 2\nvalue = 4.7"] ;
127 -> 137 ;
138 [label="mse = 0.0\nsamples = 1\nvalue = 5.1"] ;
137 -> 138 ;
139 [label="mse = 0.0\nsamples = 1\nvalue = 4.0"] ;
137 -> 139 ;
140 [label="X[10] <= 23149.5\nmse = 0.3\nsamples = 13\nvalue = 4.2"] ;
116 -> 140 ;
141 [label="X[20] <= 0.4\nmse = 0.2\nsamples = 12\nvalue = 4.1"] ;
140 -> 141 ;
142 [label="X[5] <= -7882.0\nmse = 0.3\nsamples = 3\nvalue = 3.6"] ;
141 -> 142 ;
143 [label="mse = 0.0\nsamples = 1\nvalue = 2.6"] ;
142 -> 143 ;
144 [label="X[6] <= -13229.0\nmse = 0.0\nsamples = 2\nvalue = 3.8"] ;
142 -> 144 ;
145 [label="mse = 0.0\nsamples = 1\nvalue = 3.7"] ;
144 -> 145 ;
146 [label="mse = 0.0\nsamples = 1\nvalue = 4.0"] ;
144 -> 146 ;
147 [label="X[11] <= -4281.0\nmse = 0.1\nsamples = 9\nvalue = 4.3"] ;
141 -> 147 ;
148 [label="X[13] <= -8352.0\nmse = 0.0\nsamples = 3\nvalue = 4.6"] ;
147 -> 148 ;
149 [label="mse = 0.0\nsamples = 2\nvalue = 4.5"] ;
148 -> 149 ;
150 [label="mse = 0.0\nsamples = 1\nvalue = 4.9"] ;
148 -> 150 ;
151 [label="X[7] <= 827.0\nmse = 0.0\nsamples = 6\nvalue = 4.2"] ;
147 -> 151 ;
152 [label="X[15] <= 66370.0\nmse = 0.0\nsamples = 4\nvalue = 4.1"] ;
151 -> 152 ;
153 [label="X[6] <= -944.5\nmse = 0.0\nsamples = 3\nvalue = 4.1"] ;
152 -> 153 ;
154 [label="mse = 0.0\nsamples = 1\nvalue = 4.0"] ;
153 -> 154 ;
155 [label="mse = 0.0\nsamples = 2\nvalue = 4.1"] ;
153 -> 155 ;
156 [label="mse = 0.0\nsamples = 1\nvalue = 4.2"] ;
152 -> 156 ;
157 [label="X[19] <= 1.0\nmse = 0.0\nsamples = 2\nvalue = 4.4"] ;
151 -> 157 ;
158 [label="mse = 0.0\nsamples = 1\nvalue = 4.4"] ;
157 -> 158 ;
159 [label="mse = -0.0\nsamples = 1\nvalue = 4.5"] ;
157 -> 159 ;
160 [label="mse = 0.0\nsamples = 1\nvalue = 6.2"] ;
140 -> 160 ;
161 [label="X[14] <= 1.3\nmse = 0.9\nsamples = 32\nvalue = 4.6"] ;
69 -> 161 ;
162 [label="X[11] <= -1577.5\nmse = 0.6\nsamples = 19\nvalue = 3.9"] ;
161 -> 162 ;
163 [label="X[10] <= -4720.5\nmse = 0.5\nsamples = 10\nvalue = 3.5"] ;
162 -> 163 ;
164 [label="X[9] <= 2576.0\nmse = 0.0\nsamples = 2\nvalue = 2.3"] ;
163 -> 164 ;
165 [label="mse = 0.0\nsamples = 1\nvalue = 2.1"] ;
164 -> 165 ;
166 [label="mse = 0.0\nsamples = 1\nvalue = 2.5"] ;
164 -> 166 ;
167 [label="X[15] <= 117540.0\nmse = 0.2\nsamples = 8\nvalue = 3.7"] ;
163 -> 167 ;
168 [label="X[6] <= 2037.0\nmse = 0.1\nsamples = 5\nvalue = 3.5"] ;
167 -> 168 ;
169 [label="X[20] <= 2.5\nmse = 0.0\nsamples = 3\nvalue = 3.6"] ;
168 -> 169 ;
170 [label="X[10] <= -1758.0\nmse = 0.0\nsamples = 2\nvalue = 3.6"] ;
169 -> 170 ;
171 [label="mse = 0.0\nsamples = 1\nvalue = 3.6"] ;
170 -> 171 ;
172 [label="mse = 0.0\nsamples = 1\nvalue = 3.5"] ;
170 -> 172 ;
173 [label="mse = -0.0\nsamples = 1\nvalue = 3.9"] ;
169 -> 173 ;
174 [label="X[19] <= 1.6\nmse = 0.0\nsamples = 2\nvalue = 3.2"] ;
168 -> 174 ;
175 [label="mse = 0.0\nsamples = 1\nvalue = 3.1"] ;
174 -> 175 ;
176 [label="mse = -0.0\nsamples = 1\nvalue = 3.2"] ;
174 -> 176 ;
177 [label="X[1] <= 622903.5\nmse = 0.0\nsamples = 3\nvalue = 4.3"] ;
167 -> 177 ;
178 [label="mse = 0.0\nsamples = 1\nvalue = 4.4"] ;
177 -> 178 ;
179 [label="mse = 0.0\nsamples = 2\nvalue = 4.2"] ;
177 -> 179 ;
180 [label="X[7] <= -11700.0\nmse = 0.3\nsamples = 9\nvalue = 4.4"] ;
162 -> 180 ;
181 [label="mse = 0.0\nsamples = 1\nvalue = 5.8"] ;
180 -> 181 ;
182 [label="X[21] <= 2.8\nmse = 0.1\nsamples = 8\nvalue = 4.3"] ;
180 -> 182 ;
183 [label="X[12] <= 52409.0\nmse = 0.0\nsamples = 6\nvalue = 4.1"] ;
182 -> 183 ;
184 [label="mse = 0.0\nsamples = 3\nvalue = 4.3"] ;
183 -> 184 ;
185 [label="X[13] <= -27049.0\nmse = 0.0\nsamples = 3\nvalue = 4.0"] ;
183 -> 185 ;
186 [label="mse = 0.0\nsamples = 1\nvalue = 3.9"] ;
185 -> 186 ;
187 [label="mse = -0.0\nsamples = 2\nvalue = 4.1"] ;
185 -> 187 ;
188 [label="X[14] <= 0.3\nmse = 0.0\nsamples = 2\nvalue = 4.7"] ;
182 -> 188 ;
189 [label="mse = 0.0\nsamples = 1\nvalue = 4.6"] ;
188 -> 189 ;
190 [label="mse = 0.0\nsamples = 1\nvalue = 4.8"] ;
188 -> 190 ;
191 [label="X[10] <= 10098.5\nmse = 0.4\nsamples = 13\nvalue = 5.2"] ;
161 -> 191 ;
192 [label="X[14] <= 2.3\nmse = 0.2\nsamples = 10\nvalue = 5.3"] ;
191 -> 192 ;
193 [label="X[11] <= -2621.5\nmse = 0.2\nsamples = 7\nvalue = 5.5"] ;
192 -> 193 ;
194 [label="X[2] <= 73484.5\nmse = 0.1\nsamples = 6\nvalue = 5.4"] ;
193 -> 194 ;
195 [label="X[21] <= 0.2\nmse = 0.0\nsamples = 5\nvalue = 5.3"] ;
194 -> 195 ;
196 [label="mse = 0.0\nsamples = 3\nvalue = 5.4"] ;
195 -> 196 ;
197 [label="X[14] <= 1.4\nmse = 0.0\nsamples = 2\nvalue = 5.2"] ;
195 -> 197 ;
198 [label="mse = 0.0\nsamples = 1\nvalue = 5.2"] ;
197 -> 198 ;
199 [label="mse = -0.0\nsamples = 1\nvalue = 5.1"] ;
197 -> 199 ;
200 [label="mse = 0.0\nsamples = 1\nvalue = 6.1"] ;
194 -> 200 ;
201 [label="mse = -0.0\nsamples = 1\nvalue = 6.7"] ;
193 -> 201 ;
202 [label="X[4] <= 1726.5\nmse = 0.0\nsamples = 3\nvalue = 5.0"] ;
192 -> 202 ;
203 [label="mse = 0.0\nsamples = 1\nvalue = 5.2"] ;
202 -> 203 ;
204 [label="X[19] <= 9.9\nmse = 0.0\nsamples = 2\nvalue = 4.8"] ;
202 -> 204 ;
205 [label="mse = 0.0\nsamples = 1\nvalue = 4.9"] ;
204 -> 205 ;
206 [label="mse = 0.0\nsamples = 1\nvalue = 4.6"] ;
204 -> 206 ;
207 [label="X[9] <= 194850.5\nmse = 0.1\nsamples = 3\nvalue = 4.1"] ;
191 -> 207 ;
208 [label="mse = 0.0\nsamples = 1\nvalue = 4.5"] ;
207 -> 208 ;
209 [label="mse = -0.0\nsamples = 2\nvalue = 3.9"] ;
207 -> 209 ;
210 [label="X[14] <= 0.5\nmse = 1.5\nsamples = 245\nvalue = 5.0"] ;
0 -> 210 [labeldistance=2.5, labelangle=-45, headlabel="False"] ;
211 [label="X[19] <= 1.8\nmse = 1.2\nsamples = 80\nvalue = 4.2"] ;
210 -> 211 ;
212 [label="X[3] <= 104211.0\nmse = 1.5\nsamples = 24\nvalue = 3.2"] ;
211 -> 212 ;
213 [label="X[18] <= 55575.0\nmse = 0.7\nsamples = 18\nvalue = 2.8"] ;
212 -> 213 ;
214 [label="X[18] <= 9305.0\nmse = 0.2\nsamples = 6\nvalue = 2.0"] ;
213 -> 214 ;
215 [label="mse = 0.0\nsamples = 1\nvalue = 2.6"] ;
214 -> 215 ;
216 [label="X[19] <= 1.5\nmse = 0.0\nsamples = 5\nvalue = 1.8"] ;
214 -> 216 ;
217 [label="X[12] <= 81051.0\nmse = 0.0\nsamples = 4\nvalue = 1.6"] ;
216 -> 217 ;
218 [label="mse = -0.0\nsamples = 3\nvalue = 1.7"] ;
217 -> 218 ;
219 [label="mse = -0.0\nsamples = 1\nvalue = 1.4"] ;
217 -> 219 ;
220 [label="mse = -0.0\nsamples = 1\nvalue = 2.0"] ;
216 -> 220 ;
221 [label="X[11] <= 6488.5\nmse = 0.5\nsamples = 12\nvalue = 3.2"] ;
213 -> 221 ;
222 [label="X[3] <= 25675.0\nmse = 0.2\nsamples = 8\nvalue = 3.4"] ;
221 -> 222 ;
223 [label="X[18] <= 77410.0\nmse = 0.0\nsamples = 4\nvalue = 3.1"] ;
222 -> 223 ;
224 [label="mse = 0.0\nsamples = 3\nvalue = 3.2"] ;
223 -> 224 ;
225 [label="mse = -0.0\nsamples = 1\nvalue = 2.8"] ;
223 -> 225 ;
226 [label="X[8] <= -3516.0\nmse = 0.1\nsamples = 4\nvalue = 3.8"] ;
222 -> 226 ;
227 [label="mse = 0.0\nsamples = 1\nvalue = 4.4"] ;
226 -> 227 ;
228 [label="X[19] <= 1.2\nmse = 0.0\nsamples = 3\nvalue = 3.7"] ;
226 -> 228 ;
229 [label="mse = 0.0\nsamples = 1\nvalue = 3.8"] ;
228 -> 229 ;
230 [label="mse = 0.0\nsamples = 2\nvalue = 3.6"] ;
228 -> 230 ;
231 [label="X[14] <= 0.2\nmse = 0.7\nsamples = 4\nvalue = 2.4"] ;
221 -> 231 ;
232 [label="mse = 0.0\nsamples = 1\nvalue = 3.7"] ;
231 -> 232 ;
233 [label="X[17] <= 301410.0\nmse = 0.2\nsamples = 3\nvalue = 2.0"] ;
231 -> 233 ;
234 [label="mse = 0.0\nsamples = 2\nvalue = 1.7"] ;
233 -> 234 ;
235 [label="mse = -0.0\nsamples = 1\nvalue = 2.6"] ;
233 -> 235 ;
236 [label="X[2] <= 97811.0\nmse = 1.3\nsamples = 6\nvalue = 4.9"] ;
212 -> 236 ;
237 [label="mse = 0.0\nsamples = 1\nvalue = 7.0"] ;
236 -> 237 ;
238 [label="X[4] <= 32351.5\nmse = 0.4\nsamples = 5\nvalue = 4.5"] ;
236 -> 238 ;
239 [label="X[12] <= 609514.5\nmse = 0.1\nsamples = 4\nvalue = 4.2"] ;
238 -> 239 ;
240 [label="mse = 0.0\nsamples = 1\nvalue = 3.6"] ;
239 -> 240 ;
241 [label="X[17] <= 1798775.0\nmse = 0.0\nsamples = 3\nvalue = 4.4"] ;
239 -> 241 ;
242 [label="mse = 0.0\nsamples = 2\nvalue = 4.5"] ;
241 -> 242 ;
243 [label="mse = 0.0\nsamples = 1\nvalue = 4.1"] ;
241 -> 243 ;
244 [label="mse = -0.0\nsamples = 1\nvalue = 5.6"] ;
238 -> 244 ;
245 [label="X[8] <= 5209.5\nmse = 0.5\nsamples = 56\nvalue = 4.6"] ;
211 -> 245 ;
246 [label="X[11] <= 2139.0\nmse = 0.4\nsamples = 41\nvalue = 4.4"] ;
245 -> 246 ;
247 [label="X[16] <= 6655.0\nmse = 0.3\nsamples = 20\nvalue = 4.8"] ;
246 -> 247 ;
248 [label="X[15] <= 29405.0\nmse = 0.1\nsamples = 9\nvalue = 4.3"] ;
247 -> 248 ;
249 [label="X[3] <= 7357.5\nmse = 0.0\nsamples = 5\nvalue = 4.5"] ;
248 -> 249 ;
250 [label="mse = 0.0\nsamples = 1\nvalue = 4.8"] ;
249 -> 250 ;
251 [label="X[1] <= 15709.0\nmse = 0.0\nsamples = 4\nvalue = 4.4"] ;
249 -> 251 ;
252 [label="mse = 0.0\nsamples = 2\nvalue = 4.5"] ;
251 -> 252 ;
253 [label="mse = 0.0\nsamples = 2\nvalue = 4.4"] ;
251 -> 253 ;
254 [label="X[0] <= 32803.0\nmse = 0.1\nsamples = 4\nvalue = 3.9"] ;
248 -> 254 ;
255 [label="X[9] <= -3158.5\nmse = 0.0\nsamples = 3\nvalue = 4.0"] ;
254 -> 255 ;
256 [label="mse = 0.0\nsamples = 1\nvalue = 4.3"] ;
255 -> 256 ;
257 [label="mse = 0.0\nsamples = 2\nvalue = 3.9"] ;
255 -> 257 ;
258 [label="mse = -0.0\nsamples = 1\nvalue = 3.4"] ;
254 -> 258 ;
259 [label="X[17] <= 22755.0\nmse = 0.2\nsamples = 11\nvalue = 5.1"] ;
247 -> 259 ;
260 [label="X[20] <= 2.9\nmse = 0.0\nsamples = 3\nvalue = 5.5"] ;
259 -> 260 ;
261 [label="mse = 0.0\nsamples = 1\nvalue = 5.7"] ;
260 -> 261 ;
262 [label="mse = 0.0\nsamples = 2\nvalue = 5.3"] ;
260 -> 262 ;
263 [label="X[16] <= 12220.0\nmse = 0.1\nsamples = 8\nvalue = 4.8"] ;
259 -> 263 ;
264 [label="mse = 0.0\nsamples = 1\nvalue = 4.1"] ;
263 -> 264 ;
265 [label="X[21] <= 2.8\nmse = 0.0\nsamples = 7\nvalue = 4.9"] ;
263 -> 265 ;
266 [label="X[8] <= -2140.0\nmse = 0.0\nsamples = 6\nvalue = 5.0"] ;
265 -> 266 ;
267 [label="mse = 0.0\nsamples = 2\nvalue = 4.9"] ;
266 -> 267 ;
268 [label="X[19] <= 2.6\nmse = 0.0\nsamples = 4\nvalue = 5.0"] ;
266 -> 268 ;
269 [label="mse = 0.0\nsamples = 3\nvalue = 5.0"] ;
268 -> 269 ;
270 [label="mse = -0.0\nsamples = 1\nvalue = 5.1"] ;
268 -> 270 ;
271 [label="mse = 0.0\nsamples = 1\nvalue = 4.7"] ;
265 -> 271 ;
272 [label="X[11] <= 4603.0\nmse = 0.3\nsamples = 21\nvalue = 4.1"] ;
246 -> 272 ;
273 [label="X[19] <= 3.0\nmse = 0.2\nsamples = 14\nvalue = 3.8"] ;
272 -> 273 ;
274 [label="X[9] <= 160.5\nmse = 0.1\nsamples = 5\nvalue = 3.5"] ;
273 -> 274 ;
275 [label="X[2] <= 55567.0\nmse = 0.1\nsamples = 2\nvalue = 3.1"] ;
274 -> 275 ;
276 [label="mse = 0.0\nsamples = 1\nvalue = 2.9"] ;
275 -> 276 ;
277 [label="mse = -0.0\nsamples = 1\nvalue = 3.6"] ;
275 -> 277 ;
278 [label="mse = -0.0\nsamples = 3\nvalue = 3.6"] ;
274 -> 278 ;
279 [label="X[15] <= 47270.0\nmse = 0.1\nsamples = 9\nvalue = 4.1"] ;
273 -> 279 ;
280 [label="X[14] <= 0.2\nmse = 0.0\nsamples = 7\nvalue = 4.3"] ;
279 -> 280 ;
281 [label="X[18] <= 176375.0\nmse = 0.0\nsamples = 4\nvalue = 4.1"] ;
280 -> 281 ;
282 [label="mse = 0.0\nsamples = 3\nvalue = 4.1"] ;
281 -> 282 ;
283 [label="mse = 0.0\nsamples = 1\nvalue = 4.2"] ;
281 -> 283 ;
284 [label="X[21] <= 1.3\nmse = 0.0\nsamples = 3\nvalue = 4.4"] ;
280 -> 284 ;
285 [label="mse = 0.0\nsamples = 1\nvalue = 4.5"] ;
284 -> 285 ;
286 [label="mse = -0.0\nsamples = 2\nvalue = 4.4"] ;
284 -> 286 ;
287 [label="X[12] <= 70958.5\nmse = 0.0\nsamples = 2\nvalue = 3.8"] ;
279 -> 287 ;
288 [label="mse = 0.0\nsamples = 1\nvalue = 4.0"] ;
287 -> 288 ;
289 [label="mse = 0.0\nsamples = 1\nvalue = 3.7"] ;
287 -> 289 ;
290 [label="X[18] <= 111585.0\nmse = 0.1\nsamples = 7\nvalue = 4.5"] ;
272 -> 290 ;
291 [label="X[11] <= 4695.5\nmse = 0.0\nsamples = 5\nvalue = 4.4"] ;
290 -> 291 ;
292 [label="mse = 0.0\nsamples = 3\nvalue = 4.3"] ;
291 -> 292 ;
293 [label="X[16] <= 20655.0\nmse = 0.0\nsamples = 2\nvalue = 4.6"] ;
291 -> 293 ;
294 [label="mse = 0.0\nsamples = 1\nvalue = 4.7"] ;
293 -> 294 ;
295 [label="mse = 0.0\nsamples = 1\nvalue = 4.6"] ;
293 -> 295 ;
296 [label="X[16] <= 56415.0\nmse = 0.0\nsamples = 2\nvalue = 5.1"] ;
290 -> 296 ;
297 [label="mse = 0.0\nsamples = 1\nvalue = 5.3"] ;
296 -> 297 ;
298 [label="mse = 0.0\nsamples = 1\nvalue = 4.9"] ;
296 -> 298 ;
299 [label="X[7] <= 14053.5\nmse = 0.7\nsamples = 15\nvalue = 5.1"] ;
245 -> 299 ;
300 [label="X[14] <= 0.3\nmse = 0.3\nsamples = 11\nvalue = 5.6"] ;
299 -> 300 ;
301 [label="X[2] <= 33643.0\nmse = 0.1\nsamples = 5\nvalue = 6.0"] ;
300 -> 301 ;
302 [label="mse = 0.0\nsamples = 2\nvalue = 6.3"] ;
301 -> 302 ;
303 [label="X[5] <= 1055.5\nmse = 0.0\nsamples = 3\nvalue = 5.8"] ;
301 -> 303 ;
304 [label="mse = 0.0\nsamples = 1\nvalue = 5.6"] ;
303 -> 304 ;
305 [label="mse = 0.0\nsamples = 2\nvalue = 5.9"] ;
303 -> 305 ;
306 [label="X[9] <= 2742.5\nmse = 0.1\nsamples = 6\nvalue = 5.2"] ;
300 -> 306 ;
307 [label="X[14] <= 0.3\nmse = 0.0\nsamples = 2\nvalue = 4.6"] ;
306 -> 307 ;
308 [label="mse = 0.0\nsamples = 1\nvalue = 4.8"] ;
307 -> 308 ;
309 [label="mse = -0.0\nsamples = 1\nvalue = 4.5"] ;
307 -> 309 ;
310 [label="X[12] <= 864597.0\nmse = 0.0\nsamples = 4\nvalue = 5.4"] ;
306 -> 310 ;
311 [label="X[2] <= 102961.0\nmse = 0.0\nsamples = 3\nvalue = 5.4"] ;
310 -> 311 ;
312 [label="mse = 0.0\nsamples = 2\nvalue = 5.5"] ;
311 -> 312 ;
313 [label="mse = 0.0\nsamples = 1\nvalue = 5.4"] ;
311 -> 313 ;
314 [label="mse = -0.0\nsamples = 1\nvalue = 5.1"] ;
310 -> 314 ;
315 [label="X[5] <= 28445.5\nmse = 0.2\nsamples = 4\nvalue = 4.2"] ;
299 -> 315 ;
316 [label="X[4] <= 14329.5\nmse = 0.0\nsamples = 3\nvalue = 3.8"] ;
315 -> 316 ;
317 [label="mse = 0.0\nsamples = 1\nvalue = 4.1"] ;
316 -> 317 ;
318 [label="X[14] <= 0.3\nmse = 0.0\nsamples = 2\nvalue = 3.6"] ;
316 -> 318 ;
319 [label="mse = 0.0\nsamples = 1\nvalue = 3.6"] ;
318 -> 319 ;
320 [label="mse = -0.0\nsamples = 1\nvalue = 3.7"] ;
318 -> 320 ;
321 [label="mse = 0.0\nsamples = 1\nvalue = 4.6"] ;
315 -> 321 ;
322 [label="X[15] <= 15600000.0\nmse = 1.2\nsamples = 165\nvalue = 5.3"] ;
210 -> 322 ;
323 [label="X[19] <= 1.5\nmse = 1.1\nsamples = 157\nvalue = 5.2"] ;
322 -> 323 ;
324 [label="X[20] <= 0.0\nmse = 1.1\nsamples = 48\nvalue = 4.7"] ;
323 -> 324 ;
325 [label="X[8] <= 22317.0\nmse = 0.1\nsamples = 3\nvalue = 7.1"] ;
324 -> 325 ;
326 [label="mse = 0.0\nsamples = 2\nvalue = 6.9"] ;
325 -> 326 ;
327 [label="mse = 0.0\nsamples = 1\nvalue = 7.4"] ;
325 -> 327 ;
328 [label="X[14] <= 1.5\nmse = 0.7\nsamples = 45\nvalue = 4.5"] ;
324 -> 328 ;
329 [label="X[19] <= 0.9\nmse = 0.5\nsamples = 32\nvalue = 4.8"] ;
328 -> 329 ;
330 [label="X[13] <= -18447.5\nmse = 0.2\nsamples = 6\nvalue = 4.0"] ;
329 -> 330 ;
331 [label="mse = 0.0\nsamples = 1\nvalue = 3.3"] ;
330 -> 331 ;
332 [label="X[19] <= 0.7\nmse = 0.0\nsamples = 5\nvalue = 4.2"] ;
330 -> 332 ;
333 [label="X[2] <= 605800.5\nmse = 0.0\nsamples = 4\nvalue = 4.3"] ;
332 -> 333 ;
334 [label="mse = 0.0\nsamples = 3\nvalue = 4.3"] ;
333 -> 334 ;
335 [label="mse = 0.0\nsamples = 1\nvalue = 4.5"] ;
333 -> 335 ;
336 [label="mse = 0.0\nsamples = 1\nvalue = 4.0"] ;
332 -> 336 ;
337 [label="X[0] <= 1055718.0\nmse = 0.4\nsamples = 26\nvalue = 5.0"] ;
329 -> 337 ;
338 [label="X[9] <= -96245.0\nmse = 0.3\nsamples = 23\nvalue = 5.1"] ;
337 -> 338 ;
339 [label="mse = 0.0\nsamples = 1\nvalue = 3.3"] ;
338 -> 339 ;
340 [label="X[13] <= 24437.0\nmse = 0.2\nsamples = 22\nvalue = 5.2"] ;
338 -> 340 ;
341 [label="X[10] <= 1644.0\nmse = 0.2\nsamples = 16\nvalue = 5.4"] ;
340 -> 341 ;
342 [label="X[1] <= 17233.5\nmse = 0.1\nsamples = 10\nvalue = 5.1"] ;
341 -> 342 ;
343 [label="X[5] <= -2955.5\nmse = 0.0\nsamples = 4\nvalue = 4.9"] ;
342 -> 343 ;
344 [label="mse = 0.0\nsamples = 2\nvalue = 5.0"] ;
343 -> 344 ;
345 [label="mse = -0.0\nsamples = 2\nvalue = 4.8"] ;
343 -> 345 ;
346 [label="X[9] <= 7895.5\nmse = 0.0\nsamples = 6\nvalue = 5.2"] ;
342 -> 346 ;
347 [label="X[14] <= 1.2\nmse = 0.0\nsamples = 5\nvalue = 5.2"] ;
346 -> 347 ;
348 [label="X[17] <= 153840.0\nmse = 0.0\nsamples = 3\nvalue = 5.0"] ;
347 -> 348 ;
349 [label="mse = 0.0\nsamples = 1\nvalue = 5.1"] ;
348 -> 349 ;
350 [label="mse = -0.0\nsamples = 2\nvalue = 5.0"] ;
348 -> 350 ;
351 [label="mse = 0.0\nsamples = 2\nvalue = 5.3"] ;
347 -> 351 ;
352 [label="mse = -0.0\nsamples = 1\nvalue = 5.6"] ;
346 -> 352 ;
353 [label="X[16] <= 115730.0\nmse = 0.1\nsamples = 6\nvalue = 5.8"] ;
341 -> 353 ;
354 [label="mse = 0.0\nsamples = 1\nvalue = 6.4"] ;
353 -> 354 ;
355 [label="X[8] <= 3311.0\nmse = 0.0\nsamples = 5\nvalue = 5.7"] ;
353 -> 355 ;
356 [label="X[16] <= 382910.0\nmse = 0.0\nsamples = 3\nvalue = 5.8"] ;
355 -> 356 ;
357 [label="mse = 0.0\nsamples = 1\nvalue = 5.9"] ;
356 -> 357 ;
358 [label="mse = 0.0\nsamples = 2\nvalue = 5.8"] ;
356 -> 358 ;
359 [label="X[9] <= -38525.0\nmse = 0.0\nsamples = 2\nvalue = 5.6"] ;
355 -> 359 ;
360 [label="mse = 0.0\nsamples = 1\nvalue = 5.6"] ;
359 -> 360 ;
361 [label="mse = 0.0\nsamples = 1\nvalue = 5.5"] ;
359 -> 361 ;
362 [label="X[8] <= 12161.0\nmse = 0.0\nsamples = 6\nvalue = 4.8"] ;
340 -> 362 ;
363 [label="mse = -0.0\nsamples = 3\nvalue = 4.6"] ;
362 -> 363 ;
364 [label="X[14] <= 1.3\nmse = 0.0\nsamples = 3\nvalue = 4.9"] ;
362 -> 364 ;
365 [label="mse = 0.0\nsamples = 2\nvalue = 5.0"] ;
364 -> 365 ;
366 [label="mse = -0.0\nsamples = 1\nvalue = 4.8"] ;
364 -> 366 ;
367 [label="X[20] <= 0.9\nmse = 0.1\nsamples = 3\nvalue = 3.9"] ;
337 -> 367 ;
368 [label="mse = 0.0\nsamples = 1\nvalue = 3.6"] ;
367 -> 368 ;
369 [label="X[15] <= 7217880.0\nmse = 0.0\nsamples = 2\nvalue = 4.2"] ;
367 -> 369 ;
370 [label="mse = 0.0\nsamples = 1\nvalue = 4.1"] ;
369 -> 370 ;
371 [label="mse = 0.0\nsamples = 1\nvalue = 4.2"] ;
369 -> 371 ;
372 [label="X[18] <= 549535.0\nmse = 0.7\nsamples = 13\nvalue = 3.9"] ;
328 -> 372 ;
373 [label="X[10] <= -3755.0\nmse = 0.1\nsamples = 6\nvalue = 3.3"] ;
372 -> 373 ;
374 [label="mse = 0.0\nsamples = 1\nvalue = 2.6"] ;
373 -> 374 ;
375 [label="X[18] <= 395950.0\nmse = 0.0\nsamples = 5\nvalue = 3.4"] ;
373 -> 375 ;
376 [label="X[12] <= 754873.0\nmse = 0.0\nsamples = 4\nvalue = 3.5"] ;
375 -> 376 ;
377 [label="mse = 0.0\nsamples = 3\nvalue = 3.5"] ;
376 -> 377 ;
378 [label="mse = 0.0\nsamples = 1\nvalue = 3.4"] ;
376 -> 378 ;
379 [label="mse = -0.0\nsamples = 1\nvalue = 3.1"] ;
375 -> 379 ;
380 [label="X[4] <= 156700.0\nmse = 0.5\nsamples = 7\nvalue = 4.5"] ;
372 -> 380 ;
381 [label="X[0] <= 268227.5\nmse = 0.2\nsamples = 4\nvalue = 4.9"] ;
380 -> 381 ;
382 [label="X[20] <= 0.8\nmse = 0.1\nsamples = 2\nvalue = 5.4"] ;
381 -> 382 ;
383 [label="mse = 0.0\nsamples = 1\nvalue = 5.6"] ;
382 -> 383 ;
384 [label="mse = 0.0\nsamples = 1\nvalue = 5.1"] ;
382 -> 384 ;
385 [label="X[1] <= 1138567.0\nmse = 0.0\nsamples = 2\nvalue = 4.6"] ;
381 -> 385 ;
386 [label="mse = 0.0\nsamples = 1\nvalue = 4.7"] ;
385 -> 386 ;
387 [label="mse = 0.0\nsamples = 1\nvalue = 4.5"] ;
385 -> 387 ;
388 [label="X[5] <= -45946.0\nmse = 0.0\nsamples = 3\nvalue = 3.6"] ;
380 -> 388 ;
389 [label="mse = 0.0\nsamples = 1\nvalue = 3.8"] ;
388 -> 389 ;
390 [label="X[16] <= 3087855.0\nmse = 0.0\nsamples = 2\nvalue = 3.5"] ;
388 -> 390 ;
391 [label="mse = 0.0\nsamples = 1\nvalue = 3.4"] ;
390 -> 391 ;
392 [label="mse = 0.0\nsamples = 1\nvalue = 3.6"] ;
390 -> 392 ;
393 [label="X[14] <= 1.4\nmse = 0.9\nsamples = 109\nvalue = 5.5"] ;
323 -> 393 ;
394 [label="X[14] <= 1.3\nmse = 0.9\nsamples = 42\nvalue = 5.0"] ;
393 -> 394 ;
395 [label="X[9] <= 1856.5\nmse = 0.7\nsamples = 37\nvalue = 5.3"] ;
394 -> 395 ;
396 [label="X[18] <= 713935.0\nmse = 0.6\nsamples = 11\nvalue = 6.0"] ;
395 -> 396 ;
397 [label="X[3] <= 121895.5\nmse = 0.3\nsamples = 9\nvalue = 5.7"] ;
396 -> 397 ;
398 [label="X[14] <= 0.8\nmse = 0.1\nsamples = 8\nvalue = 5.8"] ;
397 -> 398 ;
399 [label="X[14] <= 0.7\nmse = 0.0\nsamples = 5\nvalue = 6.0"] ;
398 -> 399 ;
400 [label="X[10] <= 9422.0\nmse = 0.0\nsamples = 2\nvalue = 5.8"] ;
399 -> 400 ;
401 [label="mse = 0.0\nsamples = 1\nvalue = 5.7"] ;
400 -> 401 ;
402 [label="mse = -0.0\nsamples = 1\nvalue = 5.8"] ;
400 -> 402 ;
403 [label="mse = -0.0\nsamples = 3\nvalue = 6.2"] ;
399 -> 403 ;
404 [label="X[12] <= 151523.0\nmse = 0.0\nsamples = 3\nvalue = 5.5"] ;
398 -> 404 ;
405 [label="mse = 0.0\nsamples = 1\nvalue = 5.4"] ;
404 -> 405 ;
406 [label="mse = 0.0\nsamples = 2\nvalue = 5.5"] ;
404 -> 406 ;
407 [label="mse = -0.0\nsamples = 1\nvalue = 4.2"] ;
397 -> 407 ;
408 [label="X[9] <= -2526.0\nmse = 0.0\nsamples = 2\nvalue = 7.0"] ;
396 -> 408 ;
409 [label="mse = 0.0\nsamples = 1\nvalue = 6.9"] ;
408 -> 409 ;
410 [label="mse = 0.0\nsamples = 1\nvalue = 7.1"] ;
408 -> 410 ;
411 [label="X[17] <= 94395.0\nmse = 0.4\nsamples = 26\nvalue = 5.0"] ;
395 -> 411 ;
412 [label="X[17] <= 56345.0\nmse = 0.2\nsamples = 10\nvalue = 4.6"] ;
411 -> 412 ;
413 [label="X[20] <= 8.1\nmse = 0.1\nsamples = 5\nvalue = 5.0"] ;
412 -> 413 ;
414 [label="X[3] <= 46625.0\nmse = 0.0\nsamples = 2\nvalue = 5.2"] ;
413 -> 414 ;
415 [label="mse = -0.0\nsamples = 1\nvalue = 5.1"] ;
414 -> 415 ;
416 [label="mse = 0.0\nsamples = 1\nvalue = 5.6"] ;
414 -> 416 ;
417 [label="mse = 0.0\nsamples = 3\nvalue = 4.7"] ;
413 -> 417 ;
418 [label="X[14] <= 0.9\nmse = 0.1\nsamples = 5\nvalue = 4.3"] ;
412 -> 418 ;
419 [label="X[18] <= 294240.0\nmse = 0.0\nsamples = 4\nvalue = 4.1"] ;
418 -> 419 ;
420 [label="mse = 0.0\nsamples = 2\nvalue = 4.2"] ;
419 -> 420 ;
421 [label="mse = 0.0\nsamples = 2\nvalue = 4.1"] ;
419 -> 421 ;
422 [label="mse = 0.0\nsamples = 1\nvalue = 4.7"] ;
418 -> 422 ;
423 [label="X[5] <= 170600.0\nmse = 0.4\nsamples = 16\nvalue = 5.3"] ;
411 -> 423 ;
424 [label="X[15] <= 148275.0\nmse = 0.2\nsamples = 11\nvalue = 5.5"] ;
423 -> 424 ;
425 [label="X[18] <= 293235.0\nmse = 0.0\nsamples = 7\nvalue = 5.2"] ;
424 -> 425 ;
426 [label="X[4] <= 6203.5\nmse = 0.0\nsamples = 2\nvalue = 5.4"] ;
425 -> 426 ;
427 [label="mse = 0.0\nsamples = 1\nvalue = 5.3"] ;
426 -> 427 ;
428 [label="mse = -0.0\nsamples = 1\nvalue = 5.5"] ;
426 -> 428 ;
429 [label="X[8] <= 28743.5\nmse = 0.0\nsamples = 5\nvalue = 5.1"] ;
425 -> 429 ;
430 [label="mse = 0.0\nsamples = 4\nvalue = 5.1"] ;
429 -> 430 ;
431 [label="mse = 0.0\nsamples = 1\nvalue = 5.0"] ;
429 -> 431 ;
432 [label="X[21] <= 1.1\nmse = 0.1\nsamples = 4\nvalue = 6.1"] ;
424 -> 432 ;
433 [label="mse = 0.0\nsamples = 1\nvalue = 5.7"] ;
432 -> 433 ;
434 [label="X[3] <= 137590.0\nmse = 0.0\nsamples = 3\nvalue = 6.2"] ;
432 -> 434 ;
435 [label="mse = 0.0\nsamples = 1\nvalue = 6.4"] ;
434 -> 435 ;
436 [label="X[16] <= 1923135.0\nmse = 0.0\nsamples = 2\nvalue = 6.2"] ;
434 -> 436 ;
437 [label="mse = 0.0\nsamples = 1\nvalue = 6.2"] ;
436 -> 437 ;
438 [label="mse = -0.0\nsamples = 1\nvalue = 6.1"] ;
436 -> 438 ;
439 [label="X[0] <= 3052634.5\nmse = 0.1\nsamples = 5\nvalue = 4.6"] ;
423 -> 439 ;
440 [label="X[5] <= 181939.5\nmse = 0.0\nsamples = 3\nvalue = 4.3"] ;
439 -> 440 ;
441 [label="mse = 0.0\nsamples = 1\nvalue = 4.1"] ;
440 -> 441 ;
442 [label="X[0] <= 838838.5\nmse = 0.0\nsamples = 2\nvalue = 4.4"] ;
440 -> 442 ;
443 [label="mse = 0.0\nsamples = 1\nvalue = 4.5"] ;
442 -> 443 ;
444 [label="mse = -0.0\nsamples = 1\nvalue = 4.4"] ;
442 -> 444 ;
445 [label="mse = 0.0\nsamples = 2\nvalue = 4.9"] ;
439 -> 445 ;
446 [label="X[14] <= 1.3\nmse = 0.0\nsamples = 5\nvalue = 3.9"] ;
394 -> 446 ;
447 [label="mse = -0.0\nsamples = 1\nvalue = 3.6"] ;
446 -> 447 ;
448 [label="X[2] <= 215014.5\nmse = 0.0\nsamples = 4\nvalue = 4.0"] ;
446 -> 448 ;
449 [label="mse = 0.0\nsamples = 3\nvalue = 4.0"] ;
448 -> 449 ;
450 [label="mse = -0.0\nsamples = 1\nvalue = 4.1"] ;
448 -> 450 ;
451 [label="X[18] <= 229980.0\nmse = 0.7\nsamples = 67\nvalue = 5.8"] ;
393 -> 451 ;
452 [label="X[13] <= 1991.5\nmse = 0.1\nsamples = 13\nvalue = 5.2"] ;
451 -> 452 ;
453 [label="X[15] <= 29190.0\nmse = 0.1\nsamples = 3\nvalue = 4.5"] ;
452 -> 453 ;
454 [label="mse = 0.0\nsamples = 2\nvalue = 4.7"] ;
453 -> 454 ;
455 [label="mse = 0.0\nsamples = 1\nvalue = 4.0"] ;
453 -> 455 ;
456 [label="X[18] <= 156050.0\nmse = 0.0\nsamples = 10\nvalue = 5.3"] ;
452 -> 456 ;
457 [label="X[10] <= 871.0\nmse = 0.0\nsamples = 2\nvalue = 5.6"] ;
456 -> 457 ;
458 [label="mse = 0.0\nsamples = 1\nvalue = 5.7"] ;
457 -> 458 ;
459 [label="mse = 0.0\nsamples = 1\nvalue = 5.6"] ;
457 -> 459 ;
460 [label="X[4] <= 6752.5\nmse = 0.0\nsamples = 8\nvalue = 5.2"] ;
456 -> 460 ;
461 [label="X[11] <= 3466.5\nmse = 0.0\nsamples = 3\nvalue = 5.0"] ;
460 -> 461 ;
462 [label="mse = 0.0\nsamples = 2\nvalue = 5.0"] ;
461 -> 462 ;
463 [label="mse = 0.0\nsamples = 1\nvalue = 5.1"] ;
461 -> 463 ;
464 [label="mse = 0.0\nsamples = 5\nvalue = 5.3"] ;
460 -> 464 ;
465 [label="X[1] <= 146322.0\nmse = 0.7\nsamples = 54\nvalue = 5.9"] ;
451 -> 465 ;
466 [label="X[6] <= 4178.5\nmse = 0.5\nsamples = 32\nvalue = 6.2"] ;
465 -> 466 ;
467 [label="X[9] <= 323.5\nmse = 0.4\nsamples = 19\nvalue = 6.0"] ;
466 -> 467 ;
468 [label="X[20] <= 1.3\nmse = 0.4\nsamples = 5\nvalue = 5.1"] ;
467 -> 468 ;
469 [label="X[20] <= 0.6\nmse = 0.0\nsamples = 3\nvalue = 5.5"] ;
468 -> 469 ;
470 [label="mse = 0.0\nsamples = 2\nvalue = 5.6"] ;
469 -> 470 ;
471 [label="mse = -0.0\nsamples = 1\nvalue = 5.3"] ;
469 -> 471 ;
472 [label="X[16] <= 109856.0\nmse = 0.0\nsamples = 2\nvalue = 4.2"] ;
468 -> 472 ;
473 [label="mse = 0.0\nsamples = 1\nvalue = 4.0"] ;
472 -> 473 ;
474 [label="mse = -0.0\nsamples = 1\nvalue = 4.3"] ;
472 -> 474 ;
475 [label="X[9] <= 29639.5\nmse = 0.2\nsamples = 14\nvalue = 6.2"] ;
467 -> 475 ;
476 [label="X[7] <= 16149.5\nmse = 0.1\nsamples = 12\nvalue = 6.3"] ;
475 -> 476 ;
477 [label="X[9] <= 5093.5\nmse = 0.0\nsamples = 10\nvalue = 6.2"] ;
476 -> 477 ;
478 [label="X[3] <= 62955.5\nmse = 0.0\nsamples = 4\nvalue = 6.0"] ;
477 -> 478 ;
479 [label="mse = -0.0\nsamples = 2\nvalue = 6.1"] ;
478 -> 479 ;
480 [label="X[3] <= 136982.5\nmse = 0.0\nsamples = 2\nvalue = 6.0"] ;
478 -> 480 ;
481 [label="mse = 0.0\nsamples = 1\nvalue = 6.0"] ;
480 -> 481 ;
482 [label="mse = 0.0\nsamples = 1\nvalue = 5.9"] ;
480 -> 482 ;
483 [label="X[9] <= 7875.0\nmse = 0.0\nsamples = 6\nvalue = 6.3"] ;
477 -> 483 ;
484 [label="mse = 0.0\nsamples = 1\nvalue = 6.5"] ;
483 -> 484 ;
485 [label="X[9] <= 13012.0\nmse = 0.0\nsamples = 5\nvalue = 6.3"] ;
483 -> 485 ;
486 [label="mse = 0.0\nsamples = 2\nvalue = 6.2"] ;
485 -> 486 ;
487 [label="mse = 0.0\nsamples = 3\nvalue = 6.3"] ;
485 -> 487 ;
488 [label="X[9] <= 8995.0\nmse = 0.0\nsamples = 2\nvalue = 6.9"] ;
476 -> 488 ;
489 [label="mse = 0.0\nsamples = 1\nvalue = 6.7"] ;
488 -> 489 ;
490 [label="mse = 0.0\nsamples = 1\nvalue = 7.1"] ;
488 -> 490 ;
491 [label="mse = 0.0\nsamples = 2\nvalue = 5.2"] ;
475 -> 491 ;
492 [label="X[20] <= 1.0\nmse = 0.3\nsamples = 13\nvalue = 6.7"] ;
466 -> 492 ;
493 [label="mse = 0.0\nsamples = 1\nvalue = 5.6"] ;
492 -> 493 ;
494 [label="X[16] <= 5675.0\nmse = 0.2\nsamples = 12\nvalue = 6.8"] ;
492 -> 494 ;
495 [label="mse = 0.0\nsamples = 1\nvalue = 5.6"] ;
494 -> 495 ;
496 [label="X[7] <= 15106.0\nmse = 0.1\nsamples = 11\nvalue = 6.8"] ;
494 -> 496 ;
497 [label="X[11] <= 7308.0\nmse = 0.2\nsamples = 6\nvalue = 6.7"] ;
496 -> 497 ;
498 [label="X[10] <= 6086.0\nmse = 0.0\nsamples = 5\nvalue = 6.8"] ;
497 -> 498 ;
499 [label="X[16] <= 76890.0\nmse = 0.0\nsamples = 3\nvalue = 6.9"] ;
498 -> 499 ;
500 [label="mse = 0.0\nsamples = 1\nvalue = 7.0"] ;
499 -> 500 ;
501 [label="mse = 0.0\nsamples = 2\nvalue = 6.9"] ;
499 -> 501 ;
502 [label="X[13] <= 18245.0\nmse = 0.0\nsamples = 2\nvalue = 6.5"] ;
498 -> 502 ;
503 [label="mse = 0.0\nsamples = 1\nvalue = 6.6"] ;
502 -> 503 ;
504 [label="mse = 0.0\nsamples = 1\nvalue = 6.4"] ;
502 -> 504 ;
505 [label="mse = -0.0\nsamples = 1\nvalue = 5.7"] ;
497 -> 505 ;
506 [label="X[18] <= 1280000.0\nmse = 0.0\nsamples = 5\nvalue = 7.0"] ;
496 -> 506 ;
507 [label="X[18] <= 936605.0\nmse = 0.0\nsamples = 3\nvalue = 7.1"] ;
506 -> 507 ;
508 [label="X[10] <= 9251.5\nmse = 0.0\nsamples = 2\nvalue = 7.1"] ;
507 -> 508 ;
509 [label="mse = 0.0\nsamples = 1\nvalue = 7.2"] ;
508 -> 509 ;
510 [label="mse = 0.0\nsamples = 1\nvalue = 7.1"] ;
508 -> 510 ;
511 [label="mse = -0.0\nsamples = 1\nvalue = 7.0"] ;
507 -> 511 ;
512 [label="mse = 0.0\nsamples = 2\nvalue = 6.8"] ;
506 -> 512 ;
513 [label="X[17] <= 307515.0\nmse = 0.6\nsamples = 22\nvalue = 5.3"] ;
465 -> 513 ;
514 [label="X[14] <= 3.6\nmse = 0.4\nsamples = 6\nvalue = 6.0"] ;
513 -> 514 ;
515 [label="X[17] <= 172560.0\nmse = 0.0\nsamples = 2\nvalue = 6.6"] ;
514 -> 515 ;
516 [label="mse = 0.0\nsamples = 1\nvalue = 6.7"] ;
515 -> 516 ;
517 [label="mse = -0.0\nsamples = 1\nvalue = 6.6"] ;
515 -> 517 ;
518 [label="X[9] <= 13802.0\nmse = 0.0\nsamples = 4\nvalue = 5.4"] ;
514 -> 518 ;
519 [label="X[17] <= 109225.0\nmse = 0.0\nsamples = 2\nvalue = 5.6"] ;
518 -> 519 ;
520 [label="mse = 0.0\nsamples = 1\nvalue = 5.6"] ;
519 -> 520 ;
521 [label="mse = 0.0\nsamples = 1\nvalue = 5.5"] ;
519 -> 521 ;
522 [label="mse = 0.0\nsamples = 2\nvalue = 5.2"] ;
518 -> 522 ;
523 [label="X[14] <= 10.4\nmse = 0.4\nsamples = 16\nvalue = 5.0"] ;
513 -> 523 ;
524 [label="X[21] <= 0.8\nmse = 0.3\nsamples = 15\nvalue = 5.0"] ;
523 -> 524 ;
525 [label="X[16] <= 9715000.0\nmse = 0.0\nsamples = 5\nvalue = 5.5"] ;
524 -> 525 ;
526 [label="mse = 0.0\nsamples = 3\nvalue = 5.6"] ;
525 -> 526 ;
527 [label="mse = 0.0\nsamples = 2\nvalue = 5.3"] ;
525 -> 527 ;
528 [label="X[10] <= 51135.5\nmse = 0.1\nsamples = 10\nvalue = 4.7"] ;
524 -> 528 ;
529 [label="X[12] <= 744875.0\nmse = 0.1\nsamples = 8\nvalue = 4.6"] ;
528 -> 529 ;
530 [label="mse = 0.0\nsamples = 1\nvalue = 3.9"] ;
529 -> 530 ;
531 [label="X[10] <= 22461.0\nmse = 0.0\nsamples = 7\nvalue = 4.6"] ;
529 -> 531 ;
532 [label="X[5] <= 3197.5\nmse = 0.0\nsamples = 5\nvalue = 4.5"] ;
531 -> 532 ;
533 [label="mse = 0.0\nsamples = 1\nvalue = 4.4"] ;
532 -> 533 ;
534 [label="X[21] <= 1.8\nmse = 0.0\nsamples = 4\nvalue = 4.5"] ;
532 -> 534 ;
535 [label="mse = 0.0\nsamples = 3\nvalue = 4.5"] ;
534 -> 535 ;
536 [label="mse = -0.0\nsamples = 1\nvalue = 4.6"] ;
534 -> 536 ;
537 [label="X[12] <= 8231934.0\nmse = 0.0\nsamples = 2\nvalue = 4.8"] ;
531 -> 537 ;
538 [label="mse = 0.0\nsamples = 1\nvalue = 4.9"] ;
537 -> 538 ;
539 [label="mse = -0.0\nsamples = 1\nvalue = 4.7"] ;
537 -> 539 ;
540 [label="X[11] <= 194440.0\nmse = 0.0\nsamples = 2\nvalue = 5.4"] ;
528 -> 540 ;
541 [label="mse = 0.0\nsamples = 1\nvalue = 5.2"] ;
540 -> 541 ;
542 [label="mse = -0.0\nsamples = 1\nvalue = 5.6"] ;
540 -> 542 ;
543 [label="mse = -0.0\nsamples = 1\nvalue = 6.9"] ;
523 -> 543 ;
544 [label="X[3] <= 3354247.0\nmse = 0.5\nsamples = 8\nvalue = 7.0"] ;
322 -> 544 ;
545 [label="X[16] <= 35375000.0\nmse = 0.1\nsamples = 4\nvalue = 6.4"] ;
544 -> 545 ;
546 [label="mse = 0.0\nsamples = 2\nvalue = 6.6"] ;
545 -> 546 ;
547 [label="X[19] <= 0.4\nmse = 0.0\nsamples = 2\nvalue = 6.1"] ;
545 -> 547 ;
548 [label="mse = 0.0\nsamples = 1\nvalue = 6.2"] ;
547 -> 548 ;
549 [label="mse = 0.0\nsamples = 1\nvalue = 5.8"] ;
547 -> 549 ;
550 [label="mse = -0.0\nsamples = 4\nvalue = 7.8"] ;
544 -> 550 ;
}